svm_type epsilon_svr
kernel_type linear
nr_class 2
total_sv 260
rho -1.52085
SV
1 1:0.66666667 2:0.19047619 3:0.66828525 
1 1:0.5 2:0.071428571 3:0.10263104 
1 1:0.57142857 2:0.32352941 3:0.25693924 
0.9897603931320118 1:0.16666667 2:0.045454545 3:0.42560946 
1 1:0.625 2:0.088235294 3:0.29202153 
1 1:0.66666667 2:0.11111111 3:0.53291554 
1 1:0.8 2:0.27777778 3:0.48635685 
1 1:0.66666667 2:1 3:0 
1 1:0.66666667 2:0.22222222 3:0.38888889 
1 1:0.83333333 2:0.083333333 3:0.7238968 
1 1:1 2:0.42857143 3:0.57142857 
1 1:0.5 2:0.15384615 3:0.34314947 
1 1:0.33333333 2:0.11111111 3:0.32946138 
1 1:0.5 2:0.076923077 3:0.40682172 
1 1:0.5 2:0.21428571 3:0.44176846 
1 1:0.75 2:0.30769231 3:0.4239344 
1 1:0.4 2:0.055555556 3:0.51448083 
1 1:0.25 2:0.076923077 3:0.42946919 
1 1:0.2 2:0.0625 3:0.25580891 
1 1:0.66666667 2:0.22222222 3:0.37461894 
1 1:0.6 2:0.21052632 3:0.28389627 
1 1:0.5 2:0.16666667 3:0 
1 1:0.25 2:0 3:0.39230096 
1 1:0.33333333 2:0.11111111 3:0 
1 1:0.4 2:0.052631579 3:0 
1 1:0.66666667 2:0.14285714 3:0 
1 1:0.5 2:0.23076923 3:0.34305235 
1 1:0.5 2:0.071428571 3:0 
1 1:0.4 2:0.058823529 3:0.51966735 
1 1:0.5 2:0.35714286 3:0 
1 1:0.66666667 2:0.22222222 3:0.53186522 
1 1:0.2 2:0.055555556 3:0.25286659 
1 1:0.66666667 2:0.22222222 3:0.38888889 
1 1:1 2:0.44444444 3:0.23462477 
1 1:0.66666667 2:0.44444444 3:0.44444444 
1 1:0.5 2:0.076923077 3:0 
1 1:1 2:0.31578947 3:0.47894737 
1 1:0.5 2:0.11111111 3:0.46346557 
1 1:0.66666667 2:0.22222222 3:0.38888889 
0.1277534644236596 1:0.25 2:0.066666667 3:0 
1 1:0.4 2:0.10526316 3:0 
1 1:1 2:0.42857143 3:0.35855077 
1 1:0.83333333 2:0.42857143 3:0.24761905 
1 1:0.66666667 2:0.1 3:0 
1 1:0.625 2:0.064516129 3:0.14264888 
1 1:0.375 2:0.12121212 3:0.42118187 
1 1:0.6 2:0.35294118 3:0.44992109 
1 1:0.5 2:0.071428571 3:0.4530998 
1 1:0.83333333 2:0.30434783 3:0.53928694 
1 1:0.57142857 2:0.071428571 3:0.26875309 
1 1:1 2:0.42857143 3:0.56778921 
1 1:0.8 2:0.41176471 3:0.094117647 
1 1:0.5 2:0.043478261 3:0.19227495 
1 1:1 2:0.16666667 3:0.43800696 
1 1:0.66666667 2:0.058823529 3:0 
1 1:0.83333333 2:0.18181818 3:0.4079177 
1 1:1 2:0.33333333 3:0.45833333 
1 1:1 2:0.45454545 3:0.43636364 
1 1:1 2:0.34782609 3:0.081870037 
1 1:0.6 2:0.052631579 3:0.35918538 
1 1:0.8 2:0.1875 3:0.56546754 
1 1:1 2:0.39130435 3:0.47391304 
1 1:0.66666667 2:0.18421053 3:0.086942207 
1 1:0.71428571 2:0.13333333 3:0.35905734 
1 1:0.90909091 2:0.325 3:0.53079137 
1 1:0.66666667 2:0.33333333 3:0.33194874 
1 1:0.85714286 2:0 3:0.48043548 
1 1:0.83333333 2:0.71428571 3:0.22857143 
1 1:0.55555556 2:0.05 3:0.75350824 
1 1:0.625 2:0.093023256 3:0.11360393 
1 1:0.4 2:0.1025641 3:0.20304638 
1 1:0.54545455 2:0.525 3:0.38 
1 1:0.33333333 2:0.038461538 3:0.13265097 
1 1:0.5 2:0.21428571 3:0.33913429 
1 1:1 2:0.41176471 3:0.47058824 
1 1:0.75 2:0.16129032 3:0.29583612 
1 1:0.78571429 2:0.24444444 3:0.51737176 
1 1:0.6 2:0.15625 3:0.57909319 
1 1:0.375 2:0.063829787 3:0.4850959 
1 1:0.33333333 2:0.066666667 3:0.33401631 
1 1:0.5 2:0.23076923 3:0.15956027 
1 1:0.57142857 2:0.13402062 3:0.4758622 
1 1:0.42857143 2:0.12903226 3:0.02910384 
1 1:0.4 2:0.11111111 3:0 
1 1:0.42857143 2:0.36363636 3:0.50909091 
1 1:1 2:0.44444444 3:0.44444444 
1 1:0.5 2:0.15384615 3:0.35304522 
1 1:0.6 2:0.17647059 3:0.24962082 
1 1:0.5 2:0 3:0 
1 1:0.75 2:0.30769231 3:0.31088334 
1 1:1 2:0.41176471 3:0.47058824 
1 1:0.85714286 2:0.46153846 3:0.39981405 
1 1:0.8 2:0.10526316 3:0.63522349 
1 1:0.5 2:0.23076923 3:0.1 
1 1:0.8 2:0.5 3:0.36111111 
1 1:0.6 2:0.18181818 3:0.32332797 
1 1:0.73684211 2:0.3030303 3:0.32776688 
1 1:0.53846154 2:0.093023256 3:0.18062565 
1 1:0.42857143 2:0.090909091 3:0.31580783 
1 1:0.66666667 2:0.22222222 3:0.33333333 
1 1:0.71428571 2:0.30434783 3:0.66124133 
1 1:0.6 2:0.23529412 3:0.35892491 
1 1:0.4 2:0.055555556 3:0.36754397 
1 1:0.83333333 2:0.28 3:0.48501082 
1 1:0.6 2:0.14285714 3:0.42575759 
1 1:0.57142857 2:0.13793103 3:0.12140431 
1 1:0.6 2:0.086956522 3:0.34702039 
1 1:0.25 2:0.076923077 3:0.40955384 
1 1:0.8 2:0.33333333 3:0.53333333 
1 1:0.8 2:0.44444444 3:0.40567672 
1 1:0.375 2:0.15151515 3:0.46656326 
1 1:0.4 2:0.18965517 3:0.217981 
1 1:0.625 2:0.125 3:0.14012297 
1 1:0.75 2:0.33333333 3:0 
1 1:1 2:0.4 3:0.48 
1 1:0.23529412 2:0.044354839 3:0.33409758 
1 1:0.66666667 2:0.14285714 3:0.47657046 
1 1:0.25 2:0.10909091 3:0.35576177 
1 1:0.85714286 2:0.20689655 3:0.48965517 
1 1:0.44444444 2:0.21875 3:0.22118052 
1 1:0.8 2:0.35294118 3:0.35882353 
1 1:0.55555556 2:0.16666667 3:0.26506457 
1 1:0.83333333 2:1 3:0 
1 1:0.75 2:0.42857143 3:0.27619048 
1 1:0.5 2:0.090909091 3:0.4457788 
1 1:0.83333333 2:0.39130435 3:0.28985507 
1 1:0.85714286 2:0.25806452 3:0.29677419 
1 1:0.71428571 2:0.22222222 3:0.38888889 
1 1:0.6 2:0.16666667 3:0.53738216 
1 1:0.14285714 2:0.17857143 3:0.07991956 
-1 1:0.2 2:0.058823529 3:0.56694201 
-1 1:0.4 2:0.11764706 3:0.062524285 
-1 1:0.57142857 2:0.33333333 3:0.064962204 
-1 1:1 2:0.33333333 3:0.53333333 
-1 1:0.66666667 2:0.22222222 3:0 
-1 1:0.8 2:0.5 3:0 
-0.1175138575556713 1:1 2:0.5 3:0 
-1 1:0.33333333 2:0.25 3:0.40492107 
-1 1:0.66666667 2:0.33333333 3:0.28888889 
-1 1:0.33333333 2:0 3:0.45450677 
-1 1:0.5 2:0.076923077 3:0.47414376 
-1 1:0 2:0 3:0 
-1 1:0.5 2:0.076923077 3:0.47577837 
-1 1:0.25 2:0 3:0.17964378 
-1 1:0 2:0 3:0 
-1 1:0.5 2:0.071428571 3:0.50647064 
-1 1:0.75 2:0.23076923 3:0 
-1 1:0.66666667 2:0.5 3:0.13489133 
-1 1:0.66666667 2:0.5 3:0.21666667 
-1 1:0.66666667 2:0.2 3:0.71222353 
-1 1:1 2:0.33333333 3:0.28888889 
-1 1:1 2:0.33333333 3:0.28888889 
-1 1:0.66666667 2:0.33333333 3:0.28888889 
-1 1:0.66666667 2:0.22222222 3:0.30451939 
-1 1:1 2:0.3 3:0.46149041 
-1 1:0.75 2:0.30769231 3:0.34197067 
-1 1:0.66666667 2:0.19047619 3:0.39543398 
-1 1:0.75 2:0.076923077 3:0.30074832 
-1 1:0.66666667 2:0.22222222 3:0.38888889 
-1 1:0.16666667 2:0 3:0.39426303 
-1 1:0.5 2:0.071428571 3:0.23877606 
-1 1:0.42857143 2:0.11538462 3:0.3857004 
-1 1:0.18181818 2:0.056603774 3:0.10513973 
-1 1:0.33333333 2:0.22222222 3:0 
-1 1:0.75 2:0.30769231 3:0.4407863 
-1 1:0.83333333 2:0.23809524 3:0.35899453 
-1 1:0.33333333 2:0.11111111 3:0.33102902 
-1 1:1 2:0.22222222 3:0.62222222 
-1 1:0.5 2:0.28571429 3:0 
-1 1:0.33333333 2:0.28571429 3:0.50927878 
-1 1:0.8 2:0.29411765 3:0.70396168 
-1 1:0.75 2:0.30769231 3:0.58900904 
-1 1:0.66666667 2:0.22222222 3:0.15958173 
-1 1:0.75 2:0.15384615 3:0.36874905 
-1 1:0.5 2:0.066666667 3:0.27370818 
-1 1:0.6 2:0.23529412 3:0.25367117 
-1 1:0.25 2:0.076923077 3:0 
-1 1:0.66666667 2:0.11111111 3:0.38888889 
-1 1:0.66666667 2:0.22222222 3:0.38888889 
-1 1:0.8 2:0.33333333 3:0.29916609 
-1 1:0.83333333 2:0.48484848 3:0.36767677 
-1 1:0.33333333 2:1 3:0 
-1 1:0.83333333 2:0.39130435 3:0.42608696 
-1 1:1 2:0.28571429 3:0 
-1 1:0.66666667 2:0.45 3:0.43117182 
-1 1:0.75 2:0.32432432 3:0.34971481 
-1 1:0.5 2:0.16666667 3:0.57660951 
-1 1:1 2:0.39130435 3:0.48695652 
-1 1:0.8 2:0.1 3:0.45821934 
-1 1:0.16666667 2:0 3:0 
-1 1:0.75 2:0.15384615 3:0.48160474 
-1 1:0.66666667 2:0.10526316 3:0.6210506 
-1 1:0.5 2:0.15384615 3:0.54164085 
-1 1:0.6 2:0.21052632 3:0.35723431 
-1 1:0.83333333 2:0.52380952 3:0.0791392 
-1 1:0.66666667 2:0.34782609 3:0.37266637 
-1 1:0.85714286 2:0.36 3:0.492 
-1 1:1 2:0.10526316 3:0.4585773 
-1 1:0.58333333 2:0.1884058 3:0.20597468 
-1 1:0.75 2:0.30769231 3:0.46923077 
-1 1:0.625 2:0.33333333 3:0.30439648 
-1 1:0.75 2:0.42857143 3:0.29988334 
-1 1:0.75 2:0.35714286 3:0.27915038 
-1 1:0.55555556 2:0.10638298 3:0.49756819 
-1 1:0.54545455 2:0.12244898 3:0.27670093 
-1 1:1 2:0.26086957 3:0.59130435 
-1 1:0.57142857 2:0.10810811 3:0.5248366 
-1 1:0.18181818 2:0.038461538 3:0 
-1 1:0.75 2:0.23076923 3:0.33057483 
-1 1:0.8 2:0.23076923 3:0.57038682 
-1 1:0.9 2:0.4 3:0.33267621 
-1 1:0.63636364 2:0.078431373 3:0.41266465 
-1 1:0.5 2:0 3:0 
-1 1:0.6 2:0.1 3:0.42241023 
-1 1:0.5 2:0.125 3:0.41205624 
-1 1:1 2:0.30769231 3:0.55384615 
-1 1:0.5 2:0.25 3:0.41258388 
-1 1:0.57142857 2:0.35714286 3:0.35572308 
-1 1:1 2:0.38888889 3:0.48888889 
-1 1:0.75 2:0.25 3:0.31165255 
-1 1:0.66666667 2:0.22222222 3:0.2907586 
-1 1:0.75 2:0.15384615 3:0.18461538 
-1 1:0.8 2:0.38888889 3:0.35222416 
-1 1:0.66666667 2:0.33333333 3:0.3247408 
-1 1:0.33333333 2:0.33333333 3:0.28888889 
-1 1:1 2:0.33333333 3:0.48333333 
-1 1:0.25 2:0.09375 3:0.28617771 
-1 1:0.5 2:0.23076923 3:0 
-1 1:0.75 2:0.30769231 3:0.46923077 
-1 1:0.92307692 2:0.25333333 3:0.45172458 
-1 1:0.8 2:0.094339623 3:0.63590462 
-1 1:0.76923077 2:0.32835821 3:0.35801189 
-1 1:0.83333333 2:0.44 3:0.45273736 
-1 1:0.77777778 2:0.61363636 3:0.30255424 
-1 1:0.8 2:0.3125 3:0.42327818 
-1 1:0.8 2:0.35294118 3:0.32718612 
-1 1:0.55555556 2:0.068965517 3:0.29804614 
-1 1:0.4 2:0.05 3:0.07297293 
-1 1:1 2:0.30769231 3:0.34615385 
-1 1:0.4 2:0.058823529 3:0.39130878 
-1 1:0.57142857 2:0.13793103 3:0.20736048 
-1 1:0.66666667 2:0.45833333 3:0.39401824 
-1 1:0.6 2:0.3 3:0.37106505 
-1 1:0.4 2:0 3:0 
-1 1:0.8 2:0 3:0 
-1 1:0.5 2:0.2 3:0.21130446 
-1 1:1 2:0.22222222 3:0.75888627 
-1 1:0.66666667 2:0.22222222 3:0.3913921 
-1 1:0.5 2:0.14285714 3:0.61954759 
-1 1:0.66666667 2:0.30434783 3:0.35564756 
-1 1:0.6 2:0.17647059 3:0.43431751 
-1 1:0.8 2:0.52631579 3:0.33157895 
-1 1:0.75 2:0.11304348 3:0.23251047 
-1 1:0.5 2:0.16666667 3:0.27909568 
-1 1:0.6 2:0.16666667 3:0.45417421 
-1 1:0.23076923 2:0.12765957 3:0.34495503 
-1 1:0.8 2:0.36842105 3:0.24011101 
-1 1:0.5 2:0.26923077 3:0.46504796 
-1 1:0.54545455 2:0.1509434 3:0.25413739 
-1 1:0.8 2:0.38888889 3:0.29871375 
